digraph Tree {
node [shape=box, style="filled, rounded", color="black", fontname=helvetica] ;
edge [fontname=helvetica] ;
0 [label="petal width (cm) <= 0.75\ngini = 0.67\nsamples = 98\nvalue = [50, 46, 54]\nclass = virginica", fillcolor="#faf7fe"] ;
1 [label="gini = 0.0\nsamples = 31\nvalue = [50, 0, 0]\nclass = setosa", fillcolor="#e58139"] ;
0 -> 1 [labeldistance=2.5, labelangle=45, headlabel="True"] ;
2 [label="sepal length (cm) <= 7.05\ngini = 0.5\nsamples = 67\nvalue = [0, 46, 54]\nclass = virginica", fillcolor="#ece2fb"] ;
0 -> 2 [labeldistance=2.5, labelangle=-45, headlabel="False"] ;
3 [label="petal width (cm) <= 1.75\ngini = 0.49\nsamples = 56\nvalue = [0, 46, 36]\nclass = versicolor", fillcolor="#d4f9e4"] ;
2 -> 3 ;
4 [label="petal width (cm) <= 1.6\ngini = 0.08\nsamples = 35\nvalue = [0, 45, 2]\nclass = versicolor", fillcolor="#42e687"] ;
3 -> 4 ;
5 [label="sepal width (cm) <= 2.65\ngini = 0.04\nsamples = 33\nvalue = [0, 43, 1]\nclass = versicolor", fillcolor="#3ee684"] ;
4 -> 5 ;
6 [label="sepal length (cm) <= 6.05\ngini = 0.12\nsamples = 12\nvalue = [0, 14, 1]\nclass = versicolor", fillcolor="#47e78a"] ;
5 -> 6 ;
7 [label="gini = 0.0\nsamples = 9\nvalue = [0, 12, 0]\nclass = versicolor", fillcolor="#39e581"] ;
6 -> 7 ;
8 [label="petal length (cm) <= 5.05\ngini = 0.44\nsamples = 3\nvalue = [0, 2, 1]\nclass = versicolor", fillcolor="#9cf2c0"] ;
6 -> 8 ;
9 [label="gini = 0.0\nsamples = 2\nvalue = [0, 2, 0]\nclass = versicolor", fillcolor="#39e581"] ;
8 -> 9 ;
10 [label="gini = 0.0\nsamples = 1\nvalue = [0, 0, 1]\nclass = virginica", fillcolor="#8139e5"] ;
8 -> 10 ;
11 [label="gini = 0.0\nsamples = 21\nvalue = [0, 29, 0]\nclass = versicolor", fillcolor="#39e581"] ;
5 -> 11 ;
12 [label="sepal width (cm) <= 2.75\ngini = 0.44\nsamples = 2\nvalue = [0, 2, 1]\nclass = versicolor", fillcolor="#9cf2c0"] ;
4 -> 12 ;
13 [label="gini = 0.0\nsamples = 1\nvalue = [0, 0, 1]\nclass = virginica", fillcolor="#8139e5"] ;
12 -> 13 ;
14 [label="gini = 0.0\nsamples = 1\nvalue = [0, 2, 0]\nclass = versicolor", fillcolor="#39e581"] ;
12 -> 14 ;
15 [label="petal length (cm) <= 4.85\ngini = 0.06\nsamples = 21\nvalue = [0, 1, 34]\nclass = virginica", fillcolor="#853fe6"] ;
3 -> 15 ;
16 [label="sepal length (cm) <= 5.95\ngini = 0.38\nsamples = 3\nvalue = [0, 1, 3]\nclass = virginica", fillcolor="#ab7bee"] ;
15 -> 16 ;
17 [label="gini = 0.0\nsamples = 1\nvalue = [0, 1, 0]\nclass = versicolor", fillcolor="#39e581"] ;
16 -> 17 ;
18 [label="gini = 0.0\nsamples = 2\nvalue = [0, 0, 3]\nclass = virginica", fillcolor="#8139e5"] ;
16 -> 18 ;
19 [label="gini = 0.0\nsamples = 18\nvalue = [0, 0, 31]\nclass = virginica", fillcolor="#8139e5"] ;
15 -> 19 ;
20 [label="gini = 0.0\nsamples = 11\nvalue = [0, 0, 18]\nclass = virginica", fillcolor="#8139e5"] ;
2 -> 20 ;
}